<?xml version="1.0"?>
<opencv_storage>
<cascade>
  <stageType>BOOST</stageType>
  <featureType>LBP</featureType>
  <height>60</height>
  <width>45</width>
  <stageParams>
    <boostType>GAB</boostType>
    <minHitRate>9.9500000476837158e-01</minHitRate>
    <maxFalseAlarm>5.0000000000000000e-01</maxFalseAlarm>
    <weightTrimRate>9.4999999999999996e-01</weightTrimRate>
    <maxDepth>1</maxDepth>
    <maxWeakCount>100</maxWeakCount></stageParams>
  <featureParams>
    <maxCatCount>256</maxCatCount>
    <featSize>1</featSize></featureParams>
  <stageNum>17</stageNum>
  <stages>
    <!-- stage 0 -->
    <_>
      <maxWeakCount>7</maxWeakCount>
      <stageThreshold>-1.2518531084060669e+00</stageThreshold>
      <weakClassifiers>
        <_>
          <internalNodes>
            0 -1 2 -1048854 -758 -170989022 -122590 -69208991 -68821201
            -34539486 -168296704</internalNodes>
          <leafValues>
            -7.7045828104019165e-01 1.8628405034542084e-01</leafValues></_>
        <_>
          <internalNodes>
            0 -1 117 -1174425099 78158779 -679223909 -167815233
            -1679556693 -2003136821 364640765 100663263</internalNodes>
          <leafValues>
            -5.4753708839416504e-01 3.8195303082466125e-01</leafValues></_>
        <_>
          <internalNodes>
            0 -1 13 -143894590 -41989481 1893341666 -16120814 -613066992
            1568084055 -44623037 2136421431</internalNodes>
          <leafValues>
            -6.0536396503448486e-01 3.3115500211715698e-01</leafValues></_>
        <_>
          <internalNodes>
            0 -1 138 -290984685 -1058014225 1892103043 543686639
            -1997148143 1079048155 1463784723 -989855745</internalNodes>
          <leafValues>
            -3.9732235670089722e-01 4.9258080124855042e-01</leafValues></_>
        <_>
          <internalNodes>
            0 -1 28 -270538961 -437324449 -1072087006 -354496738
            -506773755 1145703181 -108273355 -142606729</internalNodes>
          <leafValues>
            -5.0328618288040161e-01 3.7339311838150024e-01</leafValues></_>
        <_>
          <internalNodes>
            0 -1 33 -9437522 -137509150 -209520278 -682633265 -452104986
            -73749728 -1081772 -335155971</internalNodes>
          <leafValues>
            -4.5462897419929504e-01 3.9080405235290527e-01</leafValues></_>
        <_>
          <internalNodes>
            0 -1 82 2002636560 114670783 -682230349 1394277034
            1456188154 1702362 -1042845260 282721752</internalNodes>
          <leafValues>
            -5.8745253086090088e-01 3.0463138222694397e-01</leafValues></_></weakClassifiers></_>
    <!-- stage 1 -->
    <_>
      <maxWeakCount>8</maxWeakCount>
      <stageThreshold>-1.5309262275695801e+00</stageThreshold>
      <weakClassifiers>
        <_>
          <internalNodes>
            0 -1 86 -679479465 -2103297 -1728455561 -27263265 -422198651
            -719593101 97886208 -456655497</internalNodes>
          <leafValues>
            -6.7348992824554443e-01 3.3355262875556946e-01</leafValues></_>
        <_>
          <internalNodes>
            0 -1 139 -1032325573 -2097163169 1308481203 40324286
            1148948784 83850002 289374627 -1065354497</internalNodes>
          <leafValues>
            -4.7287404537200928e-01 4.8672461509704590e-01</leafValues></_>
        <_>
          <internalNodes>
            0 -1 6 -823418769 -993557921 -1059471250 5736014 -70309054
            1160126535 -264830896 -210247833</internalNodes>
          <leafValues>
            -4.6831950545310974e-01 4.4132831692695618e-01</leafValues></_>
        <_>
          <internalNodes>
            0 -1 93 -1344684255 32945527 -582884361 1912470962
            1038326703 -2002832977 904918524 364886456</internalNodes>
          <leafValues>
            -5.2894008159637451e-01 3.6424213647842407e-01</leafValues></_>
        <_>
          <internalNodes>
            0 -1 5 -159385648 -61082870 411172864 2009277290 -188573849
            -632295127 -1449134317 1934869255</internalNodes>
          <leafValues>
            -4.5203179121017456e-01 4.1017532348632813e-01</leafValues></_>
        <_>
          <internalNodes>
            0 -1 141 -4194555 -2066814052 -1973421929 -455296005
            -276301884 -856140899 -195038744 -722600475</internalNodes>
          <leafValues>
            -4.8148599267005920e-01 3.7351736426353455e-01</leafValues></_>
        <_>
          <internalNodes>
            0 -1 159 172636159 266713085 -796011011 -1402177555
            593436399 -2013738746 89224438 -995101778</internalNodes>
          <leafValues>
            -4.3212258815765381e-01 4.2728656530380249e-01</leafValues></_>
        <_>
          <internalNodes>
            0 -1 66 -23856218 617477628 -2024398048 -1973492334
            2056983155 1302767863 624132640 1089992864</internalNodes>
          <leafValues>
            -7.0718216896057129e-01 2.5672146677970886e-01</leafValues></_></weakClassifiers></_>
    <!-- stage 2 -->
    <_>
      <maxWeakCount>8</maxWeakCount>
      <stageThreshold>-1.4913852214813232e+00</stageThreshold>
      <weakClassifiers>
        <_>
          <internalNodes>
            0 -1 47 1434417071 -2100801 2096495967 -35725329 1399549789
            -4505029 2144295838 -8421597</internalNodes>
          <leafValues>
            -6.1003988981246948e-01 2.2453083097934723e-01</leafValues></_>
        <_>
          <internalNodes>
            0 -1 48 -551034994 -12468722 -182982776 -72555606 -226405412
            -538040699 -7374772 -603586812</internalNodes>
          <leafValues>
            -6.2033528089523315e-01 2.6597663760185242e-01</leafValues></_>
        <_>
          <internalNodes>
            0 -1 115 -7345295 -2020760581 -714867907 -404762665
            -234897479 -2132087057 1437595816 12319917</internalNodes>
          <leafValues>
            -4.8442497849464417e-01 3.4994617104530334e-01</leafValues></_>
        <_>
          <internalNodes>
            0 -1 27 -145 -1907033089 -103552018 -1603537921 -152319915
            120510791 -69471420 -227021003</internalNodes>
          <leafValues>
            -4.3988284468650818e-01 3.9176848530769348e-01</leafValues></_>
        <_>
          <internalNodes>
            0 -1 45 -144441276 2137989191 -27585441 1935279394
            1919444784 2071415653 -822668 2138264883</internalNodes>
          <leafValues>
            -5.9433668851852417e-01 2.9522961378097534e-01</leafValues></_>
        <_>
          <internalNodes>
            0 -1 155 -410655177 -422665409 1611640450 -1604327454
            -219706944 1182612343 -142477329 -184700993</internalNodes>
          <leafValues>
            -4.5216435194015503e-01 3.5652145743370056e-01</leafValues></_>
        <_>
          <internalNodes>
            0 -1 150 -1416397901 -1962954956 -782635219 -1912998530
            -1716913237 -1935952967 328923057 -1937926799</internalNodes>
          <leafValues>
            -4.5202714204788208e-01 3.6676132678985596e-01</leafValues></_>
        <_>
          <internalNodes>
            0 -1 35 -134493609 -303609597 1492389600 1773232606
            -282148537 -939750306 -176533440 -537143739</internalNodes>
          <leafValues>
            -3.6807754635810852e-01 4.4870507717132568e-01</leafValues></_></weakClassifiers></_>
    <!-- stage 3 -->
    <_>
      <maxWeakCount>9</maxWeakCount>
      <stageThreshold>-1.3542969226837158e+00</stageThreshold>
      <weakClassifiers>
        <_>
          <internalNodes>
            0 -1 125 -1084227587 -1463157767 -1080061953 -304751617
            -1074791425 -1734349905 -1141899845 -1073750531</internalNodes>
          <leafValues>
            -5.5301362276077271e-01 3.5350757837295532e-01</leafValues></_>
        <_>
          <internalNodes>
            0 -1 43 -2062 -336998173 -629529344 -1150046253 -456795465
            -640353088 1550262794 1894216243</internalNodes>
          <leafValues>
            -5.5275774002075195e-01 3.1215134263038635e-01</leafValues></_>
        <_>
          <internalNodes>
            0 -1 24 -339745033 -957953330 -402257265 1122648610
            -620279741 1075925093 1941398903 2004311152</internalNodes>
          <leafValues>
            -5.9123671054840088e-01 2.8839164972305298e-01</leafValues></_>
        <_>
          <internalNodes>
            0 -1 146 -269489097 -1592792117 1423356818 -1066025158
            -291638027 123484841 -974785033 -195706881</internalNodes>
          <leafValues>
            -4.1711917519569397e-01 3.9388483762741089e-01</leafValues></_>
        <_>
          <internalNodes>
            0 -1 30 -853530 -39232276 -58690565 -14280414 -265993164
            -1151008763 -77180929 2071406432</internalNodes>
          <leafValues>
            -4.9537992477416992e-01 3.4128481149673462e-01</leafValues></_>
        <_>
          <internalNodes>
            0 -1 156 702354175 780062554 446233311 251543770 -553910356
            -1399963505 -1238927451 -805343853</internalNodes>
          <leafValues>
            -3.9362296462059021e-01 3.8674795627593994e-01</leafValues></_>
        <_>
          <internalNodes>
            0 -1 9 -822441390 -45400034 -1771042382 1533685640 -87907897
            156846180 -992123417 2069059127</internalNodes>
          <leafValues>
            -5.5727458000183105e-01 2.7391704916954041e-01</leafValues></_>
        <_>
          <internalNodes>
            0 -1 38 -6485 -279721565 -774785018 -390155893 2077225299
            1161283879 2009461589 -134227457</internalNodes>
          <leafValues>
            -4.9787378311157227e-01 3.0420306324958801e-01</leafValues></_>
        <_>
          <internalNodes>
            0 -1 89 913349588 -1621954283 -1722196651 -241543091
            -2064915529 -2010400837 362764789 162076988</internalNodes>
          <leafValues>
            -5.6909853219985962e-01 2.5515878200531006e-01</leafValues></_></weakClassifiers></_>
    <!-- stage 4 -->
    <_>
      <maxWeakCount>9</maxWeakCount>
      <stageThreshold>-1.1217470169067383e+00</stageThreshold>
      <weakClassifiers>
        <_>
          <internalNodes>
            0 -1 154 -1346371593 -1580294467 -1068445517 -528887397
            -1946577669 1129044381 1353576635 -788660225</internalNodes>
          <leafValues>
            -6.0348796844482422e-01 2.2861054539680481e-01</leafValues></_>
        <_>
          <internalNodes>
            0 -1 108 137476919 -1357123467 -745548291 -69682691
            955251647 -1465191942 833601021 435755480</internalNodes>
          <leafValues>
            -5.4545652866363525e-01 3.1215360760688782e-01</leafValues></_>
        <_>
          <internalNodes>
            0 -1 50 -907019521 -938972098 -318767109 -859640326
            -455232033 -859345561 1610473471 -957906441</internalNodes>
          <leafValues>
            -3.3627983927726746e-01 5.0715571641921997e-01</leafValues></_>
        <_>
          <internalNodes>
            0 -1 8 -9967889 -404345105 -1059929912 1390497772 1212834327
            1124211785 -198088843 1463287743</internalNodes>
          <leafValues>
            -4.3319180607795715e-01 3.5305902361869812e-01</leafValues></_>
        <_>
          <internalNodes>
            0 -1 79 -562135628 -1919163492 -935213123 -279304160
            -560010592 -555825752 205356320 201138708</internalNodes>
          <leafValues>
            -5.7501000165939331e-01 2.8175452351570129e-01</leafValues></_>
        <_>
          <internalNodes>
            0 -1 166 469494767 -2075283793 -83886100 -419893577
            -201326769 89587583 -268435457 -184549441</internalNodes>
          <leafValues>
            -3.9201310276985168e-01 4.0847623348236084e-01</leafValues></_>
        <_>
          <internalNodes>
            0 -1 60 -9027120 -335589001 -319752713 2014450242 -900512956
            -249362409 353456629 2068869488</internalNodes>
          <leafValues>
            -5.8060222864151001e-01 2.8092265129089355e-01</leafValues></_>
        <_>
          <internalNodes>
            0 -1 32 -855726545 -1085577 -277876753 -226514053 -696842681
            -1480229017 -2072015397 -278448257</internalNodes>
          <leafValues>
            -3.4029510617256165e-01 4.3904975056648254e-01</leafValues></_>
        <_>
          <internalNodes>
            0 -1 121 876657957 -2066930667 -119682699 -1881174627
            -1968195588 -1931739137 803037669 163381416</internalNodes>
          <leafValues>
            -5.4611021280288696e-01 2.8689536452293396e-01</leafValues></_></weakClassifiers></_>
    <!-- stage 5 -->
    <_>
      <maxWeakCount>9</maxWeakCount>
      <stageThreshold>-1.1977542638778687e+00</stageThreshold>
      <weakClassifiers>
        <_>
          <internalNodes>
            0 -1 149 -1216351297 -1481660373 -426405259 -2066091033
            -1313082437 12310955 -171460675 -721420305</internalNodes>
          <leafValues>
            -5.9946370124816895e-01 1.9024068117141724e-01</leafValues></_>
        <_>
          <internalNodes>
            0 -1 101 544022291 699039133 1901453279 -545687215
            -1821811717 -1934880529 -1960215809 535370168</internalNodes>
          <leafValues>
            -5.0074905157089233e-01 2.9435053467750549e-01</leafValues></_>
        <_>
          <internalNodes>
            0 -1 14 -1082168597 -1546683665 -431512860 -493891893
            -268737791 -2095349997 -147589769 -713559707</internalNodes>
          <leafValues>
            -4.0300676226615906e-01 3.7357950210571289e-01</leafValues></_>
        <_>
          <internalNodes>
            0 -1 0 -265508 -7922837 14254624 1853876258 2019947171
            -1162102693 23366663 1932771363</internalNodes>
          <leafValues>
            -4.6484965085983276e-01 3.1948339939117432e-01</leafValues></_>
        <_>
          <internalNodes>
            0 -1 83 492597076 -135040140 123395185 1832912720 297954557
            -1196484287 226039288 797518472</internalNodes>
          <leafValues>
            -5.7710510492324829e-01 2.8084716200828552e-01</leafValues></_>
        <_>
          <internalNodes>
            0 -1 106 -69343439 -1020731101 25843057 -854260817
            -549948485 493200171 10326973 368934911</internalNodes>
          <leafValues>
            -4.1991579532623291e-01 3.6393609642982483e-01</leafValues></_>
        <_>
          <internalNodes>
            0 -1 40 -909703633 1666864703 1804166187 -151632958
            -143708346 -1000059889 -222997385 -682139689</internalNodes>
          <leafValues>
            -4.4047516584396362e-01 3.3238345384597778e-01</leafValues></_>
        <_>
          <internalNodes>
            0 -1 64 1744646919 -10522145 -1638963489 -187933321
            2100170351 -930258863 -818787090 -730562694</internalNodes>
          <leafValues>
            -4.1501215100288391e-01 3.5652923583984375e-01</leafValues></_>
        <_>
          <internalNodes>
            0 -1 34 -490735946 -834614098 2019096019 -1057838962
            -1470631511 205508872 1742824323 -999898891</internalNodes>
          <leafValues>
            -5.0017803907394409e-01 3.1866589188575745e-01</leafValues></_></weakClassifiers></_>
    <!-- stage 6 -->
    <_>
      <maxWeakCount>10</maxWeakCount>
      <stageThreshold>-1.7754899263381958e+00</stageThreshold>
      <weakClassifiers>
        <_>
          <internalNodes>
            0 -1 65 812069711 -238479489 -1809348401 -52708386
            1074278443 -83674589 -1229983765 -4506657</internalNodes>
          <leafValues>
            -5.9891599416732788e-01 1.7312660813331604e-01</leafValues></_>
        <_>
          <internalNodes>
            0 -1 105 -1077951020 94668725 -586094095 -1991117863
            635913649 8567017 1568755728 282320051</internalNodes>
          <leafValues>
            -6.2868618965148926e-01 2.0401181280612946e-01</leafValues></_>
        <_>
          <internalNodes>
            0 -1 4 -272965633 -402477502 -379795557 -1027604094
            -1013858321 772020603 -399169725 -522721033</internalNodes>
          <leafValues>
            -4.1099709272384644e-01 3.6850923299789429e-01</leafValues></_>
        <_>
          <internalNodes>
            0 -1 111 -1652490251 -2032862779 -1648143531 -317395657
            -2018708545 -990986227 145489321 427364884</internalNodes>
          <leafValues>
            -4.6456226706504822e-01 3.5030278563499451e-01</leafValues></_>
        <_>
          <internalNodes>
            0 -1 130 112820015 752868399 -251247811 -394176546
            -1227645065 -1889678405 655143413 -1930696201</internalNodes>
          <leafValues>
            -4.2119261622428894e-01 3.3612641692161560e-01</leafValues></_>
        <_>
          <internalNodes>
            0 -1 85 -136325820 -575234409 -2054482156 -282070969
            -839319541 -607826865 604972085 1691149669</internalNodes>
          <leafValues>
            -5.5147808790206909e-01 2.7276256680488586e-01</leafValues></_>
        <_>
          <internalNodes>
            0 -1 36 -876671313 -412203609 -1073479448 1880819494
            -1007284441 1611079719 -781969887 1937506063</internalNodes>
          <leafValues>
            -5.1421111822128296e-01 2.8189438581466675e-01</leafValues></_>
        <_>
          <internalNodes>
            0 -1 127 152188471 254589237 1932711285 -52502121 721646591
            -288634469 1066350964 -61845616</internalNodes>
          <leafValues>
            -4.8946419358253479e-01 3.0901685357093811e-01</leafValues></_>
        <_>
          <internalNodes>
            0 -1 163 -1380766033 -1427178609 -352849274 -367376573
            2012432135 1162317389 -554443995 -168821785</internalNodes>
          <leafValues>
            -4.5999962091445923e-01 3.2195544242858887e-01</leafValues></_>
        <_>
          <internalNodes>
            0 -1 90 666246129 -614968711 -771362465 2145276725
            -1683818535 -67221091 2070996973 523962648</internalNodes>
          <leafValues>
            -4.4872146844863892e-01 3.1317433714866638e-01</leafValues></_></weakClassifiers></_>
    <!-- stage 7 -->
    <_>
      <maxWeakCount>11</maxWeakCount>
      <stageThreshold>-1.7147870063781738e+00</stageThreshold>
      <weakClassifiers>
        <_>
          <internalNodes>
            0 -1 118 -1164985423 -1997128266 -578683595 -575686390
            -1116735049 -1988195361 211809784 436206847</internalNodes>
          <leafValues>
            -6.8162208795547485e-01 3.6663610488176346e-02</leafValues></_>
        <_>
          <internalNodes>
            0 -1 161 -270553249 178780551 -17306401 -1593835586
            -608183731 -805568581 -419432460 -452985170</internalNodes>
          <leafValues>
            -4.1141992807388306e-01 3.5313165187835693e-01</leafValues></_>
        <_>
          <internalNodes>
            0 -1 31 -419451105 784268799 236520970 -1360553043
            -742429897 -4984909 -102503901 -528393</internalNodes>
          <leafValues>
            -3.7753206491470337e-01 3.6778336763381958e-01</leafValues></_>
        <_>
          <internalNodes>
            0 -1 129 620576765 -1615431881 2147467263 -42008578 -32801
            -268435465 -536879875 -1077953340</internalNodes>
          <leafValues>
            -3.3711001276969910e-01 4.1676205396652222e-01</leafValues></_>
        <_>
          <internalNodes>
            0 -1 1 -567279794 -78799345 -1075516534 -80875639 -303039090
            1842298438 -580353 -246023988</internalNodes>
          <leafValues>
            -3.6367064714431763e-01 4.0384197235107422e-01</leafValues></_>
        <_>
          <internalNodes>
            0 -1 69 1324123184 -26485552 -715932839 2003990530
            -496240912 1045146722 -674267655 2076145607</internalNodes>
          <leafValues>
            -4.3612313270568848e-01 3.1752461194992065e-01</leafValues></_>
        <_>
          <internalNodes>
            0 -1 29 -319945614 -346061819 2033123308 1593846370
            1533428034 711136039 1807711063 2065004051</internalNodes>
          <leafValues>
            -5.7021820545196533e-01 2.3639361560344696e-01</leafValues></_>
        <_>
          <internalNodes>
            0 -1 151 -1115717633 258780591 -269484161 -289538246 -8195
            -33554435 -1476428139 -285234756</internalNodes>
          <leafValues>
            -3.2387864589691162e-01 4.2588087916374207e-01</leafValues></_>
        <_>
          <internalNodes>
            0 -1 22 -537919809 -836518037 939253887 -301865054 -67797569
            -1653147778 1331560032 -488112476</internalNodes>
          <leafValues>
            -3.4176820516586304e-01 3.9925724267959595e-01</leafValues></_>
        <_>
          <internalNodes>
            0 -1 99 290463765 1029438237 -1962592449 1674999964
            -1091817699 -946296481 -343340459 -1152381220</internalNodes>
          <leafValues>
            -4.6597024798393250e-01 2.8727656602859497e-01</leafValues></_>
        <_>
          <internalNodes>
            0 -1 153 1197990471 -938835425 -2143186798 618614870
            -1030575523 1098484307 1921643511 1895407359</internalNodes>
          <leafValues>
            -4.5113083720207214e-01 3.1845638155937195e-01</leafValues></_></weakClassifiers></_>
    <!-- stage 8 -->
    <_>
      <maxWeakCount>11</maxWeakCount>
      <stageThreshold>-1.1722805500030518e+00</stageThreshold>
      <weakClassifiers>
        <_>
          <internalNodes>
            0 -1 135 -70254735 -1389368509 -783550985 -677784185
            -72616057 -1884300145 -779488279 -705699841</internalNodes>
          <leafValues>
            -5.4578977823257446e-01 2.2150883078575134e-01</leafValues></_>
        <_>
          <internalNodes>
            0 -1 132 -2015420493 -2066412673 1393766815 -203474134
            -358637825 -1887706726 -88353351 -1914963457</internalNodes>
          <leafValues>
            -3.5795584321022034e-01 3.8180252909660339e-01</leafValues></_>
        <_>
          <internalNodes>
            0 -1 26 -14988661 -296804953 2080590470 -489687153
            1776768771 -1907721694 1173544966 2004876663</internalNodes>
          <leafValues>
            -4.1267016530036926e-01 3.2479521632194519e-01</leafValues></_>
        <_>
          <internalNodes>
            0 -1 126 800702269 -1410596881 2147188723 -1761738755
            -1669333505 -1073809411 -1124140292 -1073823779</internalNodes>
          <leafValues>
            -3.1586727499961853e-01 4.0488851070404053e-01</leafValues></_>
        <_>
          <internalNodes>
            0 -1 52 -276076853 -907147242 -858513253 -758510590
            2114405031 1344474198 2080326647 1465343059</internalNodes>
          <leafValues>
            -4.5696920156478882e-01 2.8385409712791443e-01</leafValues></_>
        <_>
          <internalNodes>
            0 -1 87 -1199134208 -69255 -402531949 -778309758 -1269848563
            -1173714908 -168034507 -1878688865</internalNodes>
          <leafValues>
            -4.1882246732711792e-01 2.9926338791847229e-01</leafValues></_>
        <_>
          <internalNodes>
            0 -1 169 50005815 641055223 -32112994 -1566944310 833043063
            797094415 -948444908 -520093852</internalNodes>
          <leafValues>
            -5.0275069475173950e-01 2.5429451465606689e-01</leafValues></_>
        <_>
          <internalNodes>
            0 -1 145 -705835503 -276830945 1342652754 -2133257742
            -988427575 268041071 -481714221 -1511130177</internalNodes>
          <leafValues>
            -3.6959400773048401e-01 3.5251703858375549e-01</leafValues></_>
        <_>
          <internalNodes>
            0 -1 41 1880686492 -2234264 2143461375 -63418350 921455760
            -24637363 1981371344 2133275491</internalNodes>
          <leafValues>
            -5.2351242303848267e-01 2.6493450999259949e-01</leafValues></_>
        <_>
          <internalNodes>
            0 -1 71 -1374902494 -302098950 -714445347 -83959196
            176508469 -1162356037 -1181656641 -134781068</internalNodes>
          <leafValues>
            -4.4592672586441040e-01 2.7421176433563232e-01</leafValues></_>
        <_>
          <internalNodes>
            0 -1 67 1246021500 1088391389 -1991037303 2768778 -232897579
            -47529948 -1722081263 -297832009</internalNodes>
          <leafValues>
            -4.3118515610694885e-01 2.9648688435554504e-01</leafValues></_></weakClassifiers></_>
    <!-- stage 9 -->
    <_>
      <maxWeakCount>12</maxWeakCount>
      <stageThreshold>-1.7496601343154907e+00</stageThreshold>
      <weakClassifiers>
        <_>
          <internalNodes>
            0 -1 42 -1016662098 -1626814298 -1414637618 -272633421
            -623919474 -609645840 -103843025 -385533201</internalNodes>
          <leafValues>
            -6.3432979583740234e-01 7.5753606855869293e-02</leafValues></_>
        <_>
          <internalNodes>
            0 -1 152 100934111 619889039 303799263 1623884647
            -1677887041 -824210645 -1579326826 -579911945</internalNodes>
          <leafValues>
            -4.3733078241348267e-01 2.8494918346405029e-01</leafValues></_>
        <_>
          <internalNodes>
            0 -1 114 -1285292139 -1992707108 -217854767 -35722767
            -1081609798 213385193 388744432 301714648</internalNodes>
          <leafValues>
            -4.4952318072319031e-01 2.9871544241905212e-01</leafValues></_>
        <_>
          <internalNodes>
            0 -1 95 99949885 501158887 -108802177 -90562787 991711692
            -70915329 -1546831139 -2347076</internalNodes>
          <leafValues>
            -4.2528766393661499e-01 2.9419907927513123e-01</leafValues></_>
        <_>
          <internalNodes>
            0 -1 18 -268440766 -1939436530 -1019193938 -757087926
            1337147139 121718890 -884461033 -168558701</internalNodes>
          <leafValues>
            -5.1883482933044434e-01 2.7419677376747131e-01</leafValues></_>
        <_>
          <internalNodes>
            0 -1 142 -1277543587 -1572172278 -782254305 -239143152
            -1113227331 -1885474709 -36065039 -2106067337</internalNodes>
          <leafValues>
            -3.9319795370101929e-01 3.0733609199523926e-01</leafValues></_>
        <_>
          <internalNodes>
            0 -1 7 -478688169 -821148121 -996229096 -330745688
            -880915169 1263946330 1879138655 -549978185</internalNodes>
          <leafValues>
            -3.6479794979095459e-01 3.5162836313247681e-01</leafValues></_>
        <_>
          <internalNodes>
            0 -1 44 -643795852 1963838667 1477728701 1532300383
            264500033 2030755859 -784506332 1602177827</internalNodes>
          <leafValues>
            -4.4263401627540588e-01 2.8546512126922607e-01</leafValues></_>
        <_>
          <internalNodes>
            0 -1 100 -26762123 2012590007 -353058817 2055057059
            -456358475 -597731989 203168817 -1941991946</internalNodes>
          <leafValues>
            -3.4670969843864441e-01 3.7584781646728516e-01</leafValues></_>
        <_>
          <internalNodes>
            0 -1 140 533631792 95269245 -721170375 71873347 -1181191711
            -2134174582 1085534520 1085405611</internalNodes>
          <leafValues>
            -5.5768156051635742e-01 2.2367855906486511e-01</leafValues></_>
        <_>
          <internalNodes>
            0 -1 49 -287925281 -414265505 1416630357 -521500348
            1761822837 -1978856127 1174822244 -965345758</internalNodes>
          <leafValues>
            -4.4831052422523499e-01 2.9249811172485352e-01</leafValues></_>
        <_>
          <internalNodes>
            0 -1 131 731859827 256137590 -930224145 -1505496914
            1872981253 260625403 -1867908809 -1946685356</internalNodes>
          <leafValues>
            -4.6308320760726929e-01 2.6865729689598083e-01</leafValues></_></weakClassifiers></_>
    <!-- stage 10 -->
    <_>
      <maxWeakCount>11</maxWeakCount>
      <stageThreshold>-1.2544301748275757e+00</stageThreshold>
      <weakClassifiers>
        <_>
          <internalNodes>
            0 -1 133 -2097357 -337914613 -201215021 -20112427 -316948593
            -1914196327 -992611861 -603980289</internalNodes>
          <leafValues>
            -5.0000000000000000e-01 3.3518931269645691e-01</leafValues></_>
        <_>
          <internalNodes>
            0 -1 70 440578567 445616668 490756575 -2100021 1076982164
            -1903492630 265898300 1036996962</internalNodes>
          <leafValues>
            -4.7778344154357910e-01 2.5693562626838684e-01</leafValues></_>
        <_>
          <internalNodes>
            0 -1 3 -55313322 -65761205 -1120390898 -1688664262
            -461319502 -131935728 1291165966 1649810982</internalNodes>
          <leafValues>
            -5.0708079338073730e-01 2.4755972623825073e-01</leafValues></_>
        <_>
          <internalNodes>
            0 -1 124 1060699901 -2068696075 -640484389 -1493449763
            -1973821008 -1887310415 -1180566611 217128256</internalNodes>
          <leafValues>
            -4.7803470492362976e-01 2.9534363746643066e-01</leafValues></_>
        <_>
          <internalNodes>
            0 -1 143 -1758200908 -1465347113 434270549 -545926305
            -1698567877 -1980784469 -644099759 -2055997585</internalNodes>
          <leafValues>
            -3.8590180873870850e-01 3.2017233967781067e-01</leafValues></_>
        <_>
          <internalNodes>
            0 -1 23 -798086401 1738825911 -2106434960 -1046193970
            -1548723633 120593776 -218236352 -821824137</internalNodes>
          <leafValues>
            -3.5123994946479797e-01 3.6878159642219543e-01</leafValues></_>
        <_>
          <internalNodes>
            0 -1 21 -1488853089 1715818690 -1620454793 1870846913
            2039601823 565281563 203317445 -993204576</internalNodes>
          <leafValues>
            -3.9119869470596313e-01 3.0281183123588562e-01</leafValues></_>
        <_>
          <internalNodes>
            0 -1 88 572441016 -73502663 1003962773 722460497 -240260097
            -23342184 1000926653 2133922872</internalNodes>
          <leafValues>
            -4.0541419386863708e-01 3.1554037332534790e-01</leafValues></_>
        <_>
          <internalNodes>
            0 -1 63 2002079237 -69254273 1821238719 1915882134
            1545368694 2019510835 -943735035 2069787540</internalNodes>
          <leafValues>
            -4.3385624885559082e-01 2.8557142615318298e-01</leafValues></_>
        <_>
          <internalNodes>
            0 -1 110 -977292451 -178958335 -662324747 376739929
            -1461876172 1870597351 550887985 -1640369360</internalNodes>
          <leafValues>
            -4.3164458870887756e-01 2.8774565458297729e-01</leafValues></_>
        <_>
          <internalNodes>
            0 -1 17 -1410373074 642761103 2017728650 1249638955
            -553559227 -2130324435 2103826705 -157847963</internalNodes>
          <leafValues>
            -4.6805554628372192e-01 2.6938834786415100e-01</leafValues></_></weakClassifiers></_>
    <!-- stage 11 -->
    <_>
      <maxWeakCount>10</maxWeakCount>
      <stageThreshold>-1.3305432796478271e+00</stageThreshold>
      <weakClassifiers>
        <_>
          <internalNodes>
            0 -1 54 -893080690 1739339680 -1827557618 -452672768
            -1530959009 -1417140208 -1411577282 -280696204</internalNodes>
          <leafValues>
            -7.3459714651107788e-01 -1.1019835248589516e-02</leafValues></_>
        <_>
          <internalNodes>
            0 -1 112 -1575250115 -1281844901 -117414405 -606173799
            898366111 -1931699757 957085621 423299311</internalNodes>
          <leafValues>
            -4.6203884482383728e-01 2.9305326938629150e-01</leafValues></_>
        <_>
          <internalNodes>
            0 -1 91 -42677004 -1340336062 1367430589 -1583367340
            -906909507 -108399904 -1715921867 770190080</internalNodes>
          <leafValues>
            -6.0251832008361816e-01 2.0470757782459259e-01</leafValues></_>
        <_>
          <internalNodes>
            0 -1 122 -395503 -1381563645 -1056710443 -1377860094
            -1784958701 109828620 61309092 1084427448</internalNodes>
          <leafValues>
            -4.5863264799118042e-01 2.9413041472434998e-01</leafValues></_>
        <_>
          <internalNodes>
            0 -1 160 1465907199 13709651 -2045060898 -1426564802
            869350331 50169905 -1527817819 -991193619</internalNodes>
          <leafValues>
            -4.0337845683097839e-01 3.1338328123092651e-01</leafValues></_>
        <_>
          <internalNodes>
            0 -1 84 184096607 -325134897 -1396633441 1990521679
            -1096132769 -1054232 -423086179 -22407408</internalNodes>
          <leafValues>
            -3.9652407169342041e-01 3.3310663700103760e-01</leafValues></_>
        <_>
          <internalNodes>
            0 -1 59 -277533466 -901100918 -631631745 -111214280
            1703955988 1109547123 -591386768 -260901385</internalNodes>
          <leafValues>
            -4.4429528713226318e-01 2.8358849883079529e-01</leafValues></_>
        <_>
          <internalNodes>
            0 -1 74 1847856444 -1936719411 -988306211 1185595548
            1069353012 1576749144 1325554493 518919152</internalNodes>
          <leafValues>
            -5.4514503479003906e-01 2.3622767627239227e-01</leafValues></_>
        <_>
          <internalNodes>
            0 -1 81 173278868 794044319 1417023955 991835095 -254566195
            -878716724 688577560 992091288</internalNodes>
          <leafValues>
            -5.7223635911941528e-01 1.9823919236660004e-01</leafValues></_>
        <_>
          <internalNodes>
            0 -1 78 110771513 -1948964397 1811112411 2012120504
            -1109654659 -1075421111 -1150313604 1001982836</internalNodes>
          <leafValues>
            -4.1958910226821899e-01 3.1288504600524902e-01</leafValues></_></weakClassifiers></_>
    <!-- stage 12 -->
    <_>
      <maxWeakCount>10</maxWeakCount>
      <stageThreshold>-1.2849858999252319e+00</stageThreshold>
      <weakClassifiers>
        <_>
          <internalNodes>
            0 -1 104 2016673589 1904949527 -842807817 1532454419
            -878765635 -55625313 1134559280 -1105084672</internalNodes>
          <leafValues>
            -6.5864509344100952e-01 6.3378542661666870e-02</leafValues></_>
        <_>
          <internalNodes>
            0 -1 53 1455742976 868310996 -720144957 319909953 -267971328
            369648385 1964339512 1075040322</internalNodes>
          <leafValues>
            -6.7135459184646606e-01 1.7502956092357635e-01</leafValues></_>
        <_>
          <internalNodes>
            0 -1 51 -891376854 128757274 -1958773413 -862024174
            -1189539334 264244098 256706303 -998948748</internalNodes>
          <leafValues>
            -5.2732527256011963e-01 2.2881533205509186e-01</leafValues></_>
        <_>
          <internalNodes>
            0 -1 107 -1617318112 733549086 -653928612 -586396206
            -1345738016 -1910978484 617027792 70757350</internalNodes>
          <leafValues>
            -5.1001352071762085e-01 2.6983156800270081e-01</leafValues></_>
        <_>
          <internalNodes>
            0 -1 97 -1575993547 -52584611 -1588341379 -69910755
            -355528779 -20985709 -140519683 -1090703563</internalNodes>
          <leafValues>
            -3.6461320519447327e-01 3.4280869364738464e-01</leafValues></_>
        <_>
          <internalNodes>
            0 -1 11 -409228597 -268536115 1342267016 -490252811
            -116703913 -2094921677 1204778337 1600649589</internalNodes>
          <leafValues>
            -4.2712134122848511e-01 3.0514788627624512e-01</leafValues></_>
        <_>
          <internalNodes>
            0 -1 158 198950839 -1369058430 -782249001 -1364174444
            -1346946177 -1383880556 -547795627 -268436491</internalNodes>
          <leafValues>
            -3.9457875490188599e-01 3.3413061499595642e-01</leafValues></_>
        <_>
          <internalNodes>
            0 -1 58 -933294348 -315981822 337156253 -80476926 -759292857
            1661075990 -71118605 1980833751</internalNodes>
          <leafValues>
            -4.6541464328765869e-01 2.8340771794319153e-01</leafValues></_>
        <_>
          <internalNodes>
            0 -1 162 -1310721098 113651537 -1047573872 -1941276325
            -1067765121 -2137988606 -1214254667 -995493058</internalNodes>
          <leafValues>
            -4.2787858843803406e-01 3.0916187167167664e-01</leafValues></_>
        <_>
          <internalNodes>
            0 -1 136 -2086010320 -1489852863 -314442411 -448544287
            -1148587079 202307503 -1798057744 93932761</internalNodes>
          <leafValues>
            -5.5243051052093506e-01 2.3996502161026001e-01</leafValues></_></weakClassifiers></_>
    <!-- stage 13 -->
    <_>
      <maxWeakCount>12</maxWeakCount>
      <stageThreshold>-1.7765910625457764e+00</stageThreshold>
      <weakClassifiers>
        <_>
          <internalNodes>
            0 -1 77 1577855760 -520095540 -49447079 -2000121334
            -314322927 1342892756 -1714924792 435894298</internalNodes>
          <leafValues>
            -7.4573475122451782e-01 -5.4043982177972794e-02</leafValues></_>
        <_>
          <internalNodes>
            0 -1 147 -68176365 -2024828153 -99371244 -1596804793
            -1648577855 65637127 -1760311886 1161137099</internalNodes>
          <leafValues>
            -4.8915591835975647e-01 2.3352946341037750e-01</leafValues></_>
        <_>
          <internalNodes>
            0 -1 96 796358527 1810886651 -142611649 -83951761 2063543822
            -277483649 -50856705 -17048331</internalNodes>
          <leafValues>
            -3.2058459520339966e-01 3.8023382425308228e-01</leafValues></_>
        <_>
          <internalNodes>
            0 -1 20 1946349356 -44281719 -648949326 -16645626 147213260
            -551532142 1915483368 2120577798</internalNodes>
          <leafValues>
            -3.9120230078697205e-01 3.3524134755134583e-01</leafValues></_>
        <_>
          <internalNodes>
            0 -1 57 -1428148564 -452548146 -552759363 -759185208
            -2096627585 -1996477115 -1950542660 -1941579692</internalNodes>
          <leafValues>
            -4.6557873487472534e-01 2.7091383934020996e-01</leafValues></_>
        <_>
          <internalNodes>
            0 -1 12 -269494821 -420515985 -159449345 -2064696324
            -927884193 -923271371 1575162884 -8929199</internalNodes>
          <leafValues>
            -3.2813417911529541e-01 3.8451716303825378e-01</leafValues></_>
        <_>
          <internalNodes>
            0 -1 62 -152663300 -314556306 -2112879350 -955732206
            -145470850 1094123525 -233547205 -274736905</internalNodes>
          <leafValues>
            -3.6263173818588257e-01 3.4884667396545410e-01</leafValues></_>
        <_>
          <internalNodes>
            0 -1 102 -885245147 -805942442 1627619615 -813867595
            -189197571 -22116133 -1247211051 792476788</internalNodes>
          <leafValues>
            -4.9389505386352539e-01 2.7151137590408325e-01</leafValues></_>
        <_>
          <internalNodes>
            0 -1 113 771260381 20402301 -1714234371 -562308100 818752957
            -1146373205 479815609 536806676</internalNodes>
          <leafValues>
            -4.3766251206398010e-01 2.8854393959045410e-01</leafValues></_>
        <_>
          <internalNodes>
            0 -1 25 -335583264 -305377721 -1608572736 -151377714
            -542947293 -916369399 1348414485 1359968259</internalNodes>
          <leafValues>
            -4.8617145419120789e-01 2.4926055967807770e-01</leafValues></_>
        <_>
          <internalNodes>
            0 -1 171 1191702287 122672942 -1262974834 1785656783
            -1962337510 2078253274 -1884361798 -83968004</internalNodes>
          <leafValues>
            -4.0757569670677185e-01 3.1719210743904114e-01</leafValues></_>
        <_>
          <internalNodes>
            0 -1 92 1783777040 1738260626 -712759819 714133716
            -267161213 1084363267 -1232166136 615673755</internalNodes>
          <leafValues>
            -5.4658704996109009e-01 2.4071626365184784e-01</leafValues></_></weakClassifiers></_>
    <!-- stage 14 -->
    <_>
      <maxWeakCount>9</maxWeakCount>
      <stageThreshold>-1.7017729282379150e+00</stageThreshold>
      <weakClassifiers>
        <_>
          <internalNodes>
            0 -1 10 1415110794 1154478211 1997746571 -1585110139
            -1979005717 -779435877 -1936735560 -99661142</internalNodes>
          <leafValues>
            -5.6310677528381348e-01 3.7602180242538452e-01</leafValues></_>
        <_>
          <internalNodes>
            0 -1 109 -929635565 1344504139 -2130673661 292684320
            1134806001 1560283906 -1040084992 1879097376</internalNodes>
          <leafValues>
            -5.3183710575103760e-01 3.2974237203598022e-01</leafValues></_>
        <_>
          <internalNodes>
            0 -1 19 -1987115963 69701840 -1869565881 616296844 277686592
            193168400 847888468 -1208501081</internalNodes>
          <leafValues>
            -5.3282803297042847e-01 3.3779957890510559e-01</leafValues></_>
        <_>
          <internalNodes>
            0 -1 148 -1483885781 -1996414445 1095828742 1073746195
            172208779 186587165 -577789018 1437973467</internalNodes>
          <leafValues>
            -4.7225749492645264e-01 3.7995013594627380e-01</leafValues></_>
        <_>
          <internalNodes>
            0 -1 80 218776372 1619706360 -2147434151 -1059011378
            194828725 -1995797981 -1593449892 579023439</internalNodes>
          <leafValues>
            -4.6056354045867920e-01 4.0852528810501099e-01</leafValues></_>
        <_>
          <internalNodes>
            0 -1 119 83512157 776863886 1430262563 478847238 -876008458
            -1618141109 -1718623911 -1999644368</internalNodes>
          <leafValues>
            -4.9924010038375854e-01 3.4407573938369751e-01</leafValues></_>
        <_>
          <internalNodes>
            0 -1 144 -353181130 -1728721913 1040085280 1493125633
            -1006533491 -1070251720 -1037969789 -527959061</internalNodes>
          <leafValues>
            -3.1166604161262512e-01 5.6794601678848267e-01</leafValues></_>
        <_>
          <internalNodes>
            0 -1 61 1422182118 -784300394 1241924629 -2134373612
            -868197327 1443403810 -435281478 -791473565</internalNodes>
          <leafValues>
            -4.6211847662925720e-01 3.7341123819351196e-01</leafValues></_>
        <_>
          <internalNodes>
            0 -1 167 1180162049 -1605894001 1410875522 577884427
            -771495590 1644790702 -2086511865 89715166</internalNodes>
          <leafValues>
            -4.4340145587921143e-01 4.0631076693534851e-01</leafValues></_></weakClassifiers></_>
    <!-- stage 15 -->
    <_>
      <maxWeakCount>13</maxWeakCount>
      <stageThreshold>-1.3470078706741333e+00</stageThreshold>
      <weakClassifiers>
        <_>
          <internalNodes>
            0 -1 128 266551231 -1076439041 -1188045315 -2185761
            -302432257 -307634007 -1077953539 -548</internalNodes>
          <leafValues>
            -5.6386512517929077e-01 6.9270677864551544e-02</leafValues></_>
        <_>
          <internalNodes>
            0 -1 76 1558245360 -102772899 -1857560707 1878918368
            -91571435 -1483750449 -69582979 784272437</internalNodes>
          <leafValues>
            -4.6544069051742554e-01 2.0857453346252441e-01</leafValues></_>
        <_>
          <internalNodes>
            0 -1 170 -285229265 786371855 -462203190 -898180201
            -577274041 1772091191 -940575177 -184549477</internalNodes>
          <leafValues>
            -3.7635651230812073e-01 2.7511087059974670e-01</leafValues></_>
        <_>
          <internalNodes>
            0 -1 134 -268601295 -1926500549 1878627249 -976617549
            -268468317 -1929773089 -1795443260 -908223591</internalNodes>
          <leafValues>
            -2.9340791702270508e-01 3.7620493769645691e-01</leafValues></_>
        <_>
          <internalNodes>
            0 -1 94 222854524 -100183364 -1144660497 2073222042
            -1344151690 -1670100447 426496252 163262892</internalNodes>
          <leafValues>
            -4.2462179064750671e-01 2.4482117593288422e-01</leafValues></_>
        <_>
          <internalNodes>
            0 -1 55 -1012933521 -941359199 -396520666 -161786794
            -43045295 -211867605 -882225040 -176685449</internalNodes>
          <leafValues>
            -3.4565675258636475e-01 3.1211882829666138e-01</leafValues></_>
        <_>
          <internalNodes>
            0 -1 123 -102242675 -1783714439 -67142607 -839091406
            871890875 -1937313913 100391672 -1780482186</internalNodes>
          <leafValues>
            -3.2281920313835144e-01 3.5752138495445251e-01</leafValues></_>
        <_>
          <internalNodes>
            0 -1 39 -532543288 -243310689 -661489387 559025970
            -359856619 2066678090 1212178865 1594315634</internalNodes>
          <leafValues>
            -5.6000357866287231e-01 2.1169926226139069e-01</leafValues></_>
        <_>
          <internalNodes>
            0 -1 15 -268437137 -890774263 -1176974458 1616902610
            -2137103308 59187286 2032353556 1131927541</internalNodes>
          <leafValues>
            -5.2284681797027588e-01 1.8380844593048096e-01</leafValues></_>
        <_>
          <internalNodes>
            0 -1 73 -237517376 -615529638 1535742704 1300081234
            -1585356616 -615821304 27788328 -859378381</internalNodes>
          <leafValues>
            -4.3541941046714783e-01 2.5881302356719971e-01</leafValues></_>
        <_>
          <internalNodes>
            0 -1 164 -1356860569 -1495304797 -103561938 -1358964017
            -748995769 531309503 -202900635 -319918086</internalNodes>
          <leafValues>
            -4.0003725886344910e-01 2.6628634333610535e-01</leafValues></_>
        <_>
          <internalNodes>
            0 -1 72 -706392739 -673222865 -83894273 1987719019
            -537564627 -1245807050 2032979965 -82821403</internalNodes>
          <leafValues>
            -2.9280909895896912e-01 3.6653003096580505e-01</leafValues></_>
        <_>
          <internalNodes>
            0 -1 157 -1257570375 -2060771181 67859671 1183011743
            1296765883 -2002870021 -781508447 -1004406594</internalNodes>
          <leafValues>
            -3.5492631793022156e-01 3.1726080179214478e-01</leafValues></_></weakClassifiers></_>
    <!-- stage 16 -->
    <_>
      <maxWeakCount>13</maxWeakCount>
      <stageThreshold>-1.2673958539962769e+00</stageThreshold>
      <weakClassifiers>
        <_>
          <internalNodes>
            0 -1 120 618394623 794745471 -773825029 1027142584
            1073446879 -1076114897 -1413480451 -1345323335</internalNodes>
          <leafValues>
            -5.4895275831222534e-01 1.3410770893096924e-01</leafValues></_>
        <_>
          <internalNodes>
            0 -1 165 156735871 -274887761 1341744811 1220014077
            -402729722 -984252563 -151126193 -158335030</internalNodes>
          <leafValues>
            -3.2043105363845825e-01 3.8063874840736389e-01</leafValues></_>
        <_>
          <internalNodes>
            0 -1 46 -45818348 2009223511 1529927484 -552580338
            -1926645805 -2119900281 1947058312 1556566538</internalNodes>
          <leafValues>
            -4.0980738401412964e-01 2.6265302300453186e-01</leafValues></_>
        <_>
          <internalNodes>
            0 -1 98 982521717 -81956617 356381053 1065162207 -2075510979
            -119426437 -1619707011 -1885590059</internalNodes>
          <leafValues>
            -3.8098344206809998e-01 2.7791863679885864e-01</leafValues></_>
        <_>
          <internalNodes>
            0 -1 116 -828577003 2036166928 -704624037 -256705390
            -605180343 2050460450 -171970288 265521</internalNodes>
          <leafValues>
            -4.7434842586517334e-01 2.4835100769996643e-01</leafValues></_>
        <_>
          <internalNodes>
            0 -1 37 -376485329 -1348053748 -797940650 1391726962
            -2090505458 -1480182758 -123019247 -788268585</internalNodes>
          <leafValues>
            -3.6636036634445190e-01 3.1104090809822083e-01</leafValues></_>
        <_>
          <internalNodes>
            0 -1 75 -47949860 -488697441 1422320523 2083740807
            1107870453 1292264279 1921673419 866850703</internalNodes>
          <leafValues>
            -3.9633315801620483e-01 2.7498170733451843e-01</leafValues></_>
        <_>
          <internalNodes>
            0 -1 103 -237020747 1103823431 906053119 -1543380909
            -577919827 1485705354 680202253 -131729355</internalNodes>
          <leafValues>
            -3.3731666207313538e-01 3.3287215232849121e-01</leafValues></_>
        <_>
          <internalNodes>
            0 -1 16 -1469379281 -1576066169 -2012937274 -428982350
            -1519683758 -880080379 868341573 -1636568991</internalNodes>
          <leafValues>
            -4.2280778288841248e-01 2.7226522564888000e-01</leafValues></_>
        <_>
          <internalNodes>
            0 -1 137 227685393 -1429728930 -594942499 -1537605164
            1048558007 1910425831 2056137445 -56623172</internalNodes>
          <leafValues>
            -4.6242681145668030e-01 2.4214071035385132e-01</leafValues></_>
        <_>
          <internalNodes>
            0 -1 168 -808481746 -305142289 -728468953 -497486897
            -632301822 1385742600 -209038373 -253690405</internalNodes>
          <leafValues>
            -3.5557064414024353e-01 3.2000175118446350e-01</leafValues></_>
        <_>
          <internalNodes>
            0 -1 68 -489693132 -175383929 -543931958 -1434417852
            621498849 1401390017 328008973 2045134275</internalNodes>
          <leafValues>
            -4.6840626001358032e-01 2.4336601793766022e-01</leafValues></_>
        <_>
          <internalNodes>
            0 -1 56 1745151407 499761425 1409343450 -23063394 1457127787
            154667049 -609420610 -146449422</internalNodes>
          <leafValues>
            -4.1247913241386414e-01 2.7627238631248474e-01</leafValues></_></weakClassifiers></_></stages>
  <features>
    <_>
      <rect>
        0 0 15 19</rect></_>
    <_>
      <rect>
        0 1 15 8</rect></_>
    <_>
      <rect>
        0 2 13 10</rect></_>
    <_>
      <rect>
        0 4 14 12</rect></_>
    <_>
      <rect>
        0 7 7 8</rect></_>
    <_>
      <rect>
        0 11 13 16</rect></_>
    <_>
      <rect>
        0 19 5 6</rect></_>
    <_>
      <rect>
        0 21 4 6</rect></_>
    <_>
      <rect>
        0 22 4 5</rect></_>
    <_>
      <rect>
        0 23 10 10</rect></_>
    <_>
      <rect>
        0 24 13 10</rect></_>
    <_>
      <rect>
        0 29 2 3</rect></_>
    <_>
      <rect>
        0 30 1 2</rect></_>
    <_>
      <rect>
        0 30 9 9</rect></_>
    <_>
      <rect>
        0 31 2 4</rect></_>
    <_>
      <rect>
        0 33 1 1</rect></_>
    <_>
      <rect>
        0 36 1 3</rect></_>
    <_>
      <rect>
        0 36 2 3</rect></_>
    <_>
      <rect>
        0 36 3 2</rect></_>
    <_>
      <rect>
        0 41 1 1</rect></_>
    <_>
      <rect>
        0 45 12 5</rect></_>
    <_>
      <rect>
        1 0 5 5</rect></_>
    <_>
      <rect>
        1 5 5 3</rect></_>
    <_>
      <rect>
        1 16 4 9</rect></_>
    <_>
      <rect>
        1 20 6 5</rect></_>
    <_>
      <rect>
        1 27 3 4</rect></_>
    <_>
      <rect>
        1 31 2 3</rect></_>
    <_>
      <rect>
        1 32 1 1</rect></_>
    <_>
      <rect>
        1 32 3 2</rect></_>
    <_>
      <rect>
        1 32 7 8</rect></_>
    <_>
      <rect>
        1 36 8 8</rect></_>
    <_>
      <rect>
        1 41 1 1</rect></_>
    <_>
      <rect>
        1 43 6 3</rect></_>
    <_>
      <rect>
        2 0 14 7</rect></_>
    <_>
      <rect>
        2 4 7 7</rect></_>
    <_>
      <rect>
        2 18 4 6</rect></_>
    <_>
      <rect>
        2 24 4 6</rect></_>
    <_>
      <rect>
        2 28 3 5</rect></_>
    <_>
      <rect>
        2 32 2 1</rect></_>
    <_>
      <rect>
        2 32 9 7</rect></_>
    <_>
      <rect>
        2 35 4 4</rect></_>
    <_>
      <rect>
        2 39 11 7</rect></_>
    <_>
      <rect>
        3 0 13 6</rect></_>
    <_>
      <rect>
        3 7 14 11</rect></_>
    <_>
      <rect>
        3 23 10 12</rect></_>
    <_>
      <rect>
        3 29 7 7</rect></_>
    <_>
      <rect>
        3 34 13 8</rect></_>
    <_>
      <rect>
        3 48 8 4</rect></_>
    <_>
      <rect>
        4 0 12 9</rect></_>
    <_>
      <rect>
        4 2 5 3</rect></_>
    <_>
      <rect>
        4 3 7 7</rect></_>
    <_>
      <rect>
        4 5 7 6</rect></_>
    <_>
      <rect>
        4 20 6 5</rect></_>
    <_>
      <rect>
        4 25 13 10</rect></_>
    <_>
      <rect>
        5 0 10 7</rect></_>
    <_>
      <rect>
        5 39 1 1</rect></_>
    <_>
      <rect>
        5 54 6 1</rect></_>
    <_>
      <rect>
        6 0 7 5</rect></_>
    <_>
      <rect>
        6 21 4 8</rect></_>
    <_>
      <rect>
        6 24 3 4</rect></_>
    <_>
      <rect>
        6 34 8 6</rect></_>
    <_>
      <rect>
        7 19 6 8</rect></_>
    <_>
      <rect>
        7 22 3 4</rect></_>
    <_>
      <rect>
        7 34 5 3</rect></_>
    <_>
      <rect>
        7 51 5 3</rect></_>
    <_>
      <rect>
        7 54 4 2</rect></_>
    <_>
      <rect>
        8 18 11 4</rect></_>
    <_>
      <rect>
        8 23 8 9</rect></_>
    <_>
      <rect>
        8 23 12 8</rect></_>
    <_>
      <rect>
        8 29 9 5</rect></_>
    <_>
      <rect>
        9 48 10 4</rect></_>
    <_>
      <rect>
        10 15 5 2</rect></_>
    <_>
      <rect>
        10 35 3 3</rect></_>
    <_>
      <rect>
        11 4 10 9</rect></_>
    <_>
      <rect>
        11 22 6 6</rect></_>
    <_>
      <rect>
        11 26 5 9</rect></_>
    <_>
      <rect>
        12 13 5 8</rect></_>
    <_>
      <rect>
        12 24 8 7</rect></_>
    <_>
      <rect>
        14 9 4 3</rect></_>
    <_>
      <rect>
        14 11 6 8</rect></_>
    <_>
      <rect>
        14 23 7 6</rect></_>
    <_>
      <rect>
        14 33 5 7</rect></_>
    <_>
      <rect>
        14 36 9 5</rect></_>
    <_>
      <rect>
        14 40 6 5</rect></_>
    <_>
      <rect>
        14 53 1 1</rect></_>
    <_>
      <rect>
        15 1 10 13</rect></_>
    <_>
      <rect>
        15 13 10 5</rect></_>
    <_>
      <rect>
        16 1 8 5</rect></_>
    <_>
      <rect>
        17 37 4 5</rect></_>
    <_>
      <rect>
        17 38 6 7</rect></_>
    <_>
      <rect>
        17 46 3 4</rect></_>
    <_>
      <rect>
        18 7 5 10</rect></_>
    <_>
      <rect>
        18 20 9 8</rect></_>
    <_>
      <rect>
        18 42 9 6</rect></_>
    <_>
      <rect>
        18 45 4 3</rect></_>
    <_>
      <rect>
        18 51 1 1</rect></_>
    <_>
      <rect>
        18 57 1 1</rect></_>
    <_>
      <rect>
        19 12 3 4</rect></_>
    <_>
      <rect>
        19 13 2 2</rect></_>
    <_>
      <rect>
        19 13 3 2</rect></_>
    <_>
      <rect>
        19 13 6 6</rect></_>
    <_>
      <rect>
        19 50 4 3</rect></_>
    <_>
      <rect>
        20 7 3 5</rect></_>
    <_>
      <rect>
        20 7 7 8</rect></_>
    <_>
      <rect>
        21 5 6 6</rect></_>
    <_>
      <rect>
        21 24 8 12</rect></_>
    <_>
      <rect>
        21 25 8 7</rect></_>
    <_>
      <rect>
        21 43 8 4</rect></_>
    <_>
      <rect>
        21 45 5 5</rect></_>
    <_>
      <rect>
        22 0 7 6</rect></_>
    <_>
      <rect>
        22 12 5 3</rect></_>
    <_>
      <rect>
        22 38 4 6</rect></_>
    <_>
      <rect>
        22 43 5 5</rect></_>
    <_>
      <rect>
        22 44 2 2</rect></_>
    <_>
      <rect>
        23 33 5 6</rect></_>
    <_>
      <rect>
        23 33 7 7</rect></_>
    <_>
      <rect>
        24 7 7 2</rect></_>
    <_>
      <rect>
        24 37 7 7</rect></_>
    <_>
      <rect>
        24 40 7 6</rect></_>
    <_>
      <rect>
        24 53 3 2</rect></_>
    <_>
      <rect>
        24 54 3 1</rect></_>
    <_>
      <rect>
        25 39 4 4</rect></_>
    <_>
      <rect>
        26 29 5 7</rect></_>
    <_>
      <rect>
        26 37 6 7</rect></_>
    <_>
      <rect>
        26 43 2 3</rect></_>
    <_>
      <rect>
        26 45 3 3</rect></_>
    <_>
      <rect>
        26 48 1 1</rect></_>
    <_>
      <rect>
        26 50 2 1</rect></_>
    <_>
      <rect>
        26 51 1 1</rect></_>
    <_>
      <rect>
        26 52 1 1</rect></_>
    <_>
      <rect>
        26 54 3 2</rect></_>
    <_>
      <rect>
        26 56 2 1</rect></_>
    <_>
      <rect>
        27 45 6 5</rect></_>
    <_>
      <rect>
        28 25 4 5</rect></_>
    <_>
      <rect>
        28 29 4 5</rect></_>
    <_>
      <rect>
        28 32 5 5</rect></_>
    <_>
      <rect>
        28 34 4 5</rect></_>
    <_>
      <rect>
        28 49 1 1</rect></_>
    <_>
      <rect>
        29 20 5 7</rect></_>
    <_>
      <rect>
        30 13 5 9</rect></_>
    <_>
      <rect>
        30 26 5 8</rect></_>
    <_>
      <rect>
        30 32 5 4</rect></_>
    <_>
      <rect>
        30 43 5 4</rect></_>
    <_>
      <rect>
        30 44 4 3</rect></_>
    <_>
      <rect>
        31 17 3 6</rect></_>
    <_>
      <rect>
        32 25 4 4</rect></_>
    <_>
      <rect>
        32 26 4 5</rect></_>
    <_>
      <rect>
        32 28 4 5</rect></_>
    <_>
      <rect>
        32 30 4 5</rect></_>
    <_>
      <rect>
        32 32 4 6</rect></_>
    <_>
      <rect>
        32 44 3 3</rect></_>
    <_>
      <rect>
        32 45 1 1</rect></_>
    <_>
      <rect>
        32 54 3 2</rect></_>
    <_>
      <rect>
        33 22 4 5</rect></_>
    <_>
      <rect>
        33 22 4 8</rect></_>
    <_>
      <rect>
        33 27 4 4</rect></_>
    <_>
      <rect>
        33 54 3 2</rect></_>
    <_>
      <rect>
        34 33 3 6</rect></_>
    <_>
      <rect>
        34 46 1 1</rect></_>
    <_>
      <rect>
        35 53 3 2</rect></_>
    <_>
      <rect>
        36 51 3 2</rect></_>
    <_>
      <rect>
        37 28 1 1</rect></_>
    <_>
      <rect>
        37 43 2 3</rect></_>
    <_>
      <rect>
        38 32 1 1</rect></_>
    <_>
      <rect>
        39 23 1 1</rect></_>
    <_>
      <rect>
        39 26 2 4</rect></_>
    <_>
      <rect>
        39 29 2 2</rect></_>
    <_>
      <rect>
        39 30 2 4</rect></_>
    <_>
      <rect>
        39 33 2 3</rect></_>
    <_>
      <rect>
        40 21 1 1</rect></_>
    <_>
      <rect>
        40 29 1 1</rect></_>
    <_>
      <rect>
        41 38 1 1</rect></_></features></cascade>
</opencv_storage>
